Language model created by QuickLM on Mon Nov  9 15:26:26 EST 2015
Copyright (c) 1996-2010 Carnegie Mellon University and Alexander I. Rudnicky

The model is in standard ARPA format, designed by Doug Paul while he was at MITRE.

The code that was used to produce this language model is available in Open Source.
Please visit http://www.speech.cs.cmu.edu/tools/ for more information

The (fixed) discount mass is 0.5. The backoffs are computed using the ratio method.
This model based on a corpus of 21 sentences and 26 words

\data\
ngram 1=26
ngram 2=45
ngram 3=33

\1-grams:
-0.8979 </s> -0.3010
-0.8979 <s> -0.2393
-1.3170 A -0.2796
-2.2201 AN -0.2984
-2.2201 ANOTHER -0.2423
-2.2201 BUILD -0.2796
-1.9191 CLAASS -0.2423
-1.9191 CLASS -0.2423
-2.2201 CLOSE -0.2423
-2.2201 CONDISHNAL -0.2423
-2.2201 CONDITIONAL -0.2423
-2.2201 CONSTRUCTOR -0.2423
-1.3170 CREATE -0.2740
-2.2201 EENTEGER -0.2423
-1.9191 FUNCTION -0.2423
-2.2201 HELLO -0.2423
-2.2201 INTEGER -0.2423
-2.2201 LINE -0.2423
-2.2201 MAIN -0.2423
-2.2201 NEW -0.2958
-2.2201 PRINT -0.2796
-2.2201 QUEET -0.2423
-2.2201 QUIT -0.2423
-2.2201 SAVE -0.2423
-2.2201 STREENG -0.2423
-2.2201 STRING -0.2423

\2-grams:
-1.6232 <s> ANOTHER 0.0000
-1.6232 <s> BUILD 0.0000
-1.6232 <s> CLAASS 0.0000
-1.6232 <s> CLOSE 0.0000
-1.6232 <s> CONDISHNAL 0.0000
-0.7202 <s> CREATE 0.0000
-1.6232 <s> EENTEGER 0.0000
-1.6232 <s> HELLO 0.0000
-1.6232 <s> NEW 0.0000
-1.6232 <s> PRINT 0.0000
-1.6232 <s> QUEET 0.0000
-1.6232 <s> QUIT 0.0000
-1.6232 <s> SAVE 0.0000
-1.6232 <s> STREENG 0.0000
-0.9031 A CLASS 0.0000
-1.2041 A CONDITIONAL 0.0000
-1.2041 A CONSTRUCTOR 0.0000
-0.9031 A FUNCTION 0.0000
-1.2041 A LINE 0.0000
-1.2041 A STRING 0.0000
-0.3010 AN INTEGER 0.0000
-0.3010 ANOTHER </s> -0.3010
-0.3010 BUILD A -0.2430
-0.3010 CLAASS </s> -0.3010
-0.3010 CLASS </s> -0.3010
-0.3010 CLOSE </s> -0.3010
-0.3010 CONDISHNAL </s> -0.3010
-0.3010 CONDITIONAL </s> -0.3010
-0.3010 CONSTRUCTOR </s> -0.3010
-0.4260 CREATE A -0.0512
-1.2041 CREATE AN 0.0000
-1.2041 CREATE MAIN 0.0000
-0.3010 EENTEGER </s> -0.3010
-0.3010 FUNCTION </s> -0.3010
-0.3010 HELLO </s> -0.3010
-0.3010 INTEGER </s> -0.3010
-0.3010 LINE </s> -0.3010
-0.3010 MAIN </s> -0.3010
-0.3010 NEW CLAASS 0.0000
-0.3010 PRINT A -0.2730
-0.3010 QUEET </s> -0.3010
-0.3010 QUIT </s> -0.3010
-0.3010 SAVE </s> -0.3010
-0.3010 STREENG </s> -0.3010
-0.3010 STRING </s> -0.3010

\3-grams:
-0.3010 <s> ANOTHER </s>
-0.3010 <s> BUILD A
-0.3010 <s> CLAASS </s>
-0.3010 <s> CLOSE </s>
-0.3010 <s> CONDISHNAL </s>
-0.4260 <s> CREATE A
-1.2041 <s> CREATE AN
-1.2041 <s> CREATE MAIN
-0.3010 <s> EENTEGER </s>
-0.3010 <s> HELLO </s>
-0.3010 <s> NEW CLAASS
-0.3010 <s> PRINT A
-0.3010 <s> QUEET </s>
-0.3010 <s> QUIT </s>
-0.3010 <s> SAVE </s>
-0.3010 <s> STREENG </s>
-0.3010 A CLASS </s>
-0.3010 A CONDITIONAL </s>
-0.3010 A CONSTRUCTOR </s>
-0.3010 A FUNCTION </s>
-0.3010 A LINE </s>
-0.3010 A STRING </s>
-0.3010 AN INTEGER </s>
-0.3010 BUILD A CLASS
-1.0792 CREATE A CLASS
-1.0792 CREATE A CONDITIONAL
-1.0792 CREATE A CONSTRUCTOR
-0.7782 CREATE A FUNCTION
-1.0792 CREATE A STRING
-0.3010 CREATE AN INTEGER
-0.3010 CREATE MAIN </s>
-0.3010 NEW CLAASS </s>
-0.3010 PRINT A LINE

\end\
