Language model created by QuickLM on Tue Nov 10 00:18:18 EST 2015
Copyright (c) 1996-2010 Carnegie Mellon University and Alexander I. Rudnicky

The model is in standard ARPA format, designed by Doug Paul while he was at MITRE.

The code that was used to produce this language model is available in Open Source.
Please visit http://www.speech.cs.cmu.edu/tools/ for more information

The (fixed) discount mass is 0.5. The backoffs are computed using the ratio method.
This model based on a corpus of 25 sentences and 33 words

\data\
ngram 1=33
ngram 2=56
ngram 3=40

\1-grams:
-0.8943 </s> -0.3010
-0.8943 <s> -0.2392
-1.3892 A -0.2829
-2.2923 AN -0.2988
-2.2923 ANOTHER -0.2418
-2.2923 BODY -0.2418
-2.2923 BUILD -0.2829
-1.9912 CLAASS -0.2418
-1.9912 CLASS -0.2418
-2.2923 CLOSE -0.2418
-2.2923 CONDISHNAL -0.2418
-2.2923 CONDITIONAL -0.2418
-2.2923 CONSTRUCTOR -0.2418
-1.3892 CREATE -0.2783
-2.2923 EENTEGER -0.2418
-1.9912 FUNCTION -0.2418
-2.2923 GRAM -0.2418
-2.2923 HELLO -0.2418
-2.2923 INTEGER -0.2418
-2.2923 KEEL -0.2418
-2.2923 KILL -0.2988
-2.2923 LINE -0.2418
-2.2923 MAIN -0.2418
-2.2923 NEW -0.2966
-2.2923 PRINT -0.2829
-2.2923 PRO -0.2988
-2.2923 PROGRAM -0.2418
-2.2923 QUEET -0.2418
-2.2923 QUIT -0.2418
-2.2923 SAVE -0.2418
-2.2923 STOP -0.2988
-2.2923 STREENG -0.2418
-2.2923 STRING -0.2418

\2-grams:
-1.6990 <s> ANOTHER 0.0000
-1.6990 <s> BUILD 0.0000
-1.6990 <s> CLAASS 0.0000
-1.6990 <s> CLOSE 0.0000
-1.6990 <s> CONDISHNAL 0.0000
-0.7959 <s> CREATE 0.0000
-1.6990 <s> EENTEGER 0.0000
-1.6990 <s> HELLO 0.0000
-1.6990 <s> KEEL 0.0000
-1.6990 <s> KILL 0.0000
-1.6990 <s> NEW 0.0000
-1.6990 <s> PRINT 0.0000
-1.6990 <s> PRO 0.0000
-1.6990 <s> QUEET 0.0000
-1.6990 <s> QUIT 0.0000
-1.6990 <s> SAVE 0.0000
-1.6990 <s> STOP 0.0000
-1.6990 <s> STREENG 0.0000
-0.9031 A CLASS 0.0000
-1.2041 A CONDITIONAL 0.0000
-1.2041 A CONSTRUCTOR 0.0000
-0.9031 A FUNCTION 0.0000
-1.2041 A LINE 0.0000
-1.2041 A STRING 0.0000
-0.3010 AN INTEGER 0.0000
-0.3010 ANOTHER </s> -0.3010
-0.3010 BODY </s> -0.3010
-0.3010 BUILD A -0.2430
-0.3010 CLAASS </s> -0.3010
-0.3010 CLASS </s> -0.3010
-0.3010 CLOSE </s> -0.3010
-0.3010 CONDISHNAL </s> -0.3010
-0.3010 CONDITIONAL </s> -0.3010
-0.3010 CONSTRUCTOR </s> -0.3010
-0.4260 CREATE A -0.0512
-1.2041 CREATE AN 0.0000
-1.2041 CREATE MAIN 0.0000
-0.3010 EENTEGER </s> -0.3010
-0.3010 FUNCTION </s> -0.3010
-0.3010 GRAM </s> -0.3010
-0.3010 HELLO </s> -0.3010
-0.3010 INTEGER </s> -0.3010
-0.3010 KEEL </s> -0.3010
-0.3010 KILL BODY 0.0000
-0.3010 LINE </s> -0.3010
-0.3010 MAIN </s> -0.3010
-0.3010 NEW CLAASS 0.0000
-0.3010 PRINT A -0.2730
-0.3010 PRO GRAM 0.0000
-0.3010 PROGRAM </s> -0.3010
-0.3010 QUEET </s> -0.3010
-0.3010 QUIT </s> -0.3010
-0.3010 SAVE </s> -0.3010
-0.3010 STOP PROGRAM 0.0000
-0.3010 STREENG </s> -0.3010
-0.3010 STRING </s> -0.3010

\3-grams:
-0.3010 <s> ANOTHER </s>
-0.3010 <s> BUILD A
-0.3010 <s> CLAASS </s>
-0.3010 <s> CLOSE </s>
-0.3010 <s> CONDISHNAL </s>
-0.4260 <s> CREATE A
-1.2041 <s> CREATE AN
-1.2041 <s> CREATE MAIN
-0.3010 <s> EENTEGER </s>
-0.3010 <s> HELLO </s>
-0.3010 <s> KEEL </s>
-0.3010 <s> KILL BODY
-0.3010 <s> NEW CLAASS
-0.3010 <s> PRINT A
-0.3010 <s> PRO GRAM
-0.3010 <s> QUEET </s>
-0.3010 <s> QUIT </s>
-0.3010 <s> SAVE </s>
-0.3010 <s> STOP PROGRAM
-0.3010 <s> STREENG </s>
-0.3010 A CLASS </s>
-0.3010 A CONDITIONAL </s>
-0.3010 A CONSTRUCTOR </s>
-0.3010 A FUNCTION </s>
-0.3010 A LINE </s>
-0.3010 A STRING </s>
-0.3010 AN INTEGER </s>
-0.3010 BUILD A CLASS
-1.0792 CREATE A CLASS
-1.0792 CREATE A CONDITIONAL
-1.0792 CREATE A CONSTRUCTOR
-0.7782 CREATE A FUNCTION
-1.0792 CREATE A STRING
-0.3010 CREATE AN INTEGER
-0.3010 CREATE MAIN </s>
-0.3010 KILL BODY </s>
-0.3010 NEW CLAASS </s>
-0.3010 PRINT A LINE
-0.3010 PRO GRAM </s>
-0.3010 STOP PROGRAM </s>

\end\
